%YAML:1.0
opencv_ml_svm:
   format: 3
   svmType: EPS_SVR
   kernel:
      type: LINEAR
   C: 1.0000000000000000e-002
   p: 1.0000000000000001e-001
   term_criteria: { iterations:100 }
   var_count: 576
   sv_total: 1
   support_vectors:
      - [ -3.72271091e-002, -2.11601835e-002, 1.75768808e-002,
          7.58063886e-003, -2.26724707e-002, 1.90188475e-002,
          1.24739250e-002, -6.59559527e-003, -1.84036251e-002,
          -9.96579602e-003, 3.51483263e-002, 5.35386056e-002,
          1.70140687e-004, -3.69427130e-002, 7.68879848e-003,
          7.59166665e-003, -5.61564462e-003, -2.14711055e-002,
          -3.24666649e-002, -8.11335165e-003, 3.22971940e-002,
          3.29859033e-002, 5.60625736e-003, 8.10591411e-003,
          1.39762703e-002, -5.72348433e-003, -1.12880766e-002,
          -8.26039445e-003, 6.15635514e-002, 7.93912709e-002,
          5.17254137e-002, 1.23605635e-002, 1.30614024e-002,
          3.71561316e-003, 5.08936914e-003, -3.31530906e-003,
          9.79474559e-003, 2.29302198e-002, 2.18136702e-002,
          -2.71973945e-002, -5.45426533e-002, 4.29655332e-003,
          3.70396324e-003, 4.36339797e-005, -9.30829905e-003,
          1.91086978e-002, 3.37033123e-002, 7.25029455e-003,
          -4.01527025e-002, -5.25664464e-002, -2.45799054e-003,
          6.87523233e-003, 3.41842091e-003, 7.10581196e-003,
          1.19428076e-002, 4.77191806e-002, 6.74019456e-002,
          5.29744774e-002, 8.03146604e-003, 1.50898593e-002,
          9.38408310e-004, 9.37757839e-004, 6.45296182e-003,
          1.87907573e-002, 5.36714084e-002, 4.53393757e-002,
          3.92764173e-002, 1.15660205e-002, 3.46961245e-002,
          5.72882267e-003, 6.61563687e-003, 4.79528261e-003,
          2.14282796e-002, 2.07285509e-002, -6.11650338e-003,
          -4.41576242e-002, -4.42483388e-002, 7.54558528e-003,
          1.48788495e-002, 7.85437040e-003, 2.33682413e-002,
          3.23870708e-003, 7.77126662e-003, -1.93988588e-002,
          -4.36944701e-002, -3.41964848e-002, 2.22877711e-002,
          1.46456296e-002, 1.05230743e-002, 1.93454791e-002,
          1.19755175e-002, 2.09244415e-002, -9.05861030e-004,
          2.52199527e-002, 2.50038542e-002, 5.41292839e-002,
          1.82667486e-002, 1.57417394e-002, 8.82019382e-003,
          5.68948220e-003, -3.40744224e-003, -8.96351412e-003,
          1.12869116e-002, 2.67179776e-002, 6.82571158e-002,
          1.78864934e-002, 1.60283260e-002, 1.59088317e-002,
          2.98865195e-002, 2.42123175e-002, 2.63508246e-003,
          -4.19248827e-002, -1.96698625e-002, 4.58786674e-002,
          3.01038530e-002, 3.53447534e-002, 5.25858775e-002,
          -2.03899061e-003, -3.30022047e-003, -1.68754882e-003,
          -6.38808459e-002, -6.51513040e-002, -1.23516312e-002,
          1.87874790e-002, 2.79418658e-002, 2.40354910e-002,
          4.30832710e-003, 2.08571297e-003, 4.07586020e-004,
          2.70524994e-002, 4.17870656e-002, 8.30390304e-002,
          1.79194883e-002, 7.04620080e-003, 6.85892208e-003,
          -3.54112908e-002, -1.93876438e-002, -1.42055219e-002,
          -2.14530416e-002, -8.76059383e-003, 1.05493562e-002,
          -6.99369120e-004, -1.51646789e-002, -2.70022806e-002,
          -3.62551436e-002, -3.54924947e-002, -5.35403239e-003,
          3.86527851e-002, 3.20898443e-002, 5.78303030e-003,
          5.03985118e-003, -1.19091216e-002, -3.07831429e-002,
          -3.36643644e-002, 4.75538615e-003, 2.35909000e-002,
          6.61327317e-002, 4.85533252e-002, -4.43273084e-003,
          -5.85726928e-003, -1.21579403e-002, -2.59160455e-002,
          -3.95597667e-002, -2.71986928e-002, -2.07299832e-002,
          1.46535523e-002, 4.12792899e-002, 3.72665905e-004,
          -7.89749250e-003, -1.38487406e-002, -4.25869040e-002,
          -3.46576050e-002, -2.62120850e-002, -4.26447242e-002,
          4.88400608e-002, 4.22490686e-002, -8.23630951e-003,
          -2.31407788e-002, -1.32254427e-002, -3.28477658e-002,
          -1.12110954e-002, 7.27626216e-003, 1.15366429e-002,
          5.27934469e-002, 2.50302404e-002, -1.46351801e-003,
          -4.18557785e-003, -8.03473778e-003, -1.16364146e-002,
          -7.67736882e-003, 5.76315401e-003, 5.65942796e-003,
          2.98901573e-002, 2.68681403e-002, 1.77010577e-002,
          -7.27447309e-003, -1.37234163e-002, -2.03189328e-002,
          -1.16452109e-002, -1.00538889e-002, -2.47993004e-002,
          5.14736064e-002, 3.88397612e-002, 3.17052472e-003,
          -5.69029478e-003, -1.04414904e-003, -9.76775307e-003,
          -1.40362149e-002, -9.09281988e-003, -1.98140554e-002,
          3.26297805e-002, 2.56910976e-002, 2.43375804e-002,
          6.05862262e-003, -1.17821945e-002, -9.01584700e-003,
          -1.02074509e-002, -1.12732891e-002, -2.77776252e-002,
          1.57649294e-002, 3.28667276e-002, 3.20173725e-002,
          -4.72359918e-003, -5.24338987e-003, -1.41868098e-002,
          -5.07273478e-003, -1.57800820e-002, -2.16410682e-002,
          2.13736501e-002, 2.91416775e-002, 3.44661735e-002,
          -1.05490200e-002, -4.85379947e-003, -6.64923061e-003,
          -5.54292521e-004, -8.12839624e-003, -2.91129686e-002,
          3.47785242e-002, 2.42250208e-002, 2.96558030e-002,
          3.58380866e-003, -5.98150445e-003, -4.06675600e-003,
          -5.06982347e-003, -1.86765958e-002, -3.46850976e-002,
          4.42384146e-002, 3.03632002e-002, 2.87097692e-002,
          -5.67396497e-003, -3.29190982e-003, -1.39676416e-002,
          -1.10676531e-002, -1.75278038e-002, -1.56213138e-002,
          3.12581770e-002, 7.47337267e-002, 3.20856459e-002,
          -1.41245900e-002, -1.47396922e-002, -1.49346776e-002,
          -4.31264378e-002, -3.56819183e-002, -3.51155102e-002,
          -1.03092575e-002, 1.39568457e-002, -2.48853974e-002,
          -2.81987302e-002, -2.96547078e-002, -4.02525477e-002,
          -1.82892773e-002, -2.53261756e-002, -2.21844912e-002,
          6.51783273e-002, 7.78733268e-002, 2.13285480e-002,
          -1.43477246e-002, -1.30023658e-002, -2.44792886e-002,
          -4.29424569e-002, -4.24391963e-002, -4.88457121e-002,
          2.11499278e-002, 7.35327555e-003, -3.33228186e-002,
          -2.96726134e-002, -2.87672449e-002, -4.41500321e-002,
          -2.50937641e-002, -1.68689210e-002, -4.79553156e-002,
          -1.46371694e-002, 3.64796408e-002, 2.21457817e-002,
          1.15951960e-004, -3.36786965e-003, -2.25632433e-002,
          -4.10601171e-003, 1.04914336e-002, -1.34589048e-002,
          2.57058647e-002, 5.28494418e-002, 9.04682837e-003,
          -6.96891395e-004, 1.17498925e-002, 1.49186326e-005,
          -1.50688887e-002, -9.99721792e-003, -3.91719081e-002,
          -6.15994669e-002, 6.66110590e-003, 2.17061341e-002,
          5.35230059e-003, -1.99719542e-003, -2.56941076e-002,
          3.19278613e-002, 8.10752288e-002, 3.12282350e-002,
          2.62155924e-002, 4.77036536e-002, 3.97865027e-002,
          3.19868289e-002, 2.73793116e-002, 2.12844107e-002,
          8.52339249e-003, 5.31103043e-003, -1.37958294e-002,
          -2.34037428e-003, 1.31917140e-002, -1.14760585e-002,
          2.88744946e-003, 1.68022793e-002, 8.36445950e-003,
          1.61820408e-002, 6.43630465e-003, -1.42603125e-002,
          5.35704428e-003, 3.55549157e-003, -7.71504082e-003,
          1.19307283e-002, 1.29481619e-002, 2.65746918e-002,
          4.24694866e-002, 7.08339140e-002, 4.89312373e-002,
          8.86639301e-003, -1.34996453e-003, -6.29815739e-003,
          2.49363203e-002, 3.82545926e-002, 3.18124332e-002,
          5.53482734e-002, 4.41622958e-002, 4.29755002e-002,
          2.62356233e-002, -2.51756348e-002, -9.50513687e-003,
          2.64116134e-002, 3.74157317e-002, 4.86641712e-002,
          3.36299315e-002, 1.05965855e-002, -1.39062351e-003,
          2.68020965e-002, 2.47580977e-003, 2.61301845e-002,
          2.63576154e-002, 1.78332739e-002, 3.13249528e-002,
          -7.33399438e-003, -1.34204105e-002, -2.04610489e-002,
          4.03728597e-002, 1.80548541e-002, 1.30056171e-002,
          1.17367962e-002, 7.61374831e-004, -1.52113028e-002,
          5.34529090e-002, 3.57060023e-002, 3.70416380e-002,
          3.37723605e-002, -1.05169220e-002, 2.02021711e-002,
          4.65686023e-002, 3.52973677e-002, 3.99227701e-002,
          3.51561746e-003, 2.48006335e-003, 1.38349067e-002,
          3.72343995e-002, -6.74901018e-003, 2.22099163e-002,
          3.87714170e-002, 1.06561789e-002, 5.70606440e-003,
          -2.94269603e-002, -2.73184367e-002, -2.04493273e-002,
          7.54138976e-002, 5.98931946e-002, 2.17642318e-002,
          8.92815180e-003, -4.47596749e-003, -2.35837828e-002,
          -5.00486642e-002, -3.72500233e-002, -3.97557840e-002,
          2.63842326e-002, 2.78570922e-003, -1.55383879e-002,
          -1.52493669e-002, -1.77797526e-002, -3.83983925e-002,
          8.49324837e-003, 6.49610069e-003, 3.16691101e-002,
          6.87059835e-002, 2.49211825e-002, 2.57268734e-002,
          3.64813171e-002, 2.45691277e-002, 1.74802933e-002,
          -2.81882454e-002, -3.38730030e-002, -8.75184126e-003,
          1.50780873e-002, -5.49865887e-003, -1.28772194e-002,
          -5.89425024e-003, -8.05756636e-003, -2.01866981e-002,
          -2.13586073e-003, 1.15302606e-002, -2.99057234e-002,
          -7.17444718e-002, -2.04695594e-002, -3.93741718e-003,
          7.16888579e-003, 6.19683822e-004, -2.54672561e-002,
          6.40275404e-002, 1.32976487e-001, 6.34671673e-002,
          4.64110002e-002, 3.78810465e-002, 3.87566164e-002,
          5.48410453e-002, 4.57462184e-002, 3.71310189e-002,
          -5.32653257e-002, 3.72015014e-002, -2.03234004e-003,
          -4.42493968e-002, -4.43130434e-002, -4.45799641e-002,
          -3.02226227e-002, -5.04732579e-002, -7.37129971e-002,
          -2.67592142e-003, 8.35634470e-002, 4.76524234e-002,
          3.20323743e-002, -1.11995526e-002, -1.72013920e-002,
          -9.07509308e-003, -2.80666407e-002, -2.94617098e-002,
          5.83618246e-002, 9.12766457e-002, 5.94753698e-002,
          2.66075395e-002, -6.81358483e-003, 2.30773981e-003,
          3.55533250e-002, 3.78953889e-002, 3.50485034e-002,
          3.12635079e-002, 5.38433604e-002, 4.69685234e-002,
          3.87306660e-002, -1.78364124e-002, -1.41016662e-003,
          2.39512417e-002, 2.48738695e-002, 2.32062787e-002,
          -5.32576814e-003, 2.18701065e-002, -5.38088800e-003,
          -1.42232133e-002, -2.36011017e-002, -1.43941576e-002,
          -6.07524579e-003, -1.82166174e-002, -1.00164525e-002,
          -4.25052643e-003, 1.31986365e-002, 8.57924111e-003,
          -1.49441818e-002, -1.70825738e-002, -1.10223293e-002,
          -4.72695380e-003, -1.34702353e-002, -9.89174377e-003,
          4.94236648e-002, 7.23829567e-002, 6.68194070e-002,
          4.68390509e-002, -3.68093560e-003, 1.34218279e-002,
          4.00201939e-002, 3.06200702e-002, 2.83741076e-002,
          1.92113202e-002, 3.51518616e-002, 5.48559986e-002,
          3.10414433e-002, -1.76905189e-002, 2.47272942e-003,
          2.78947018e-002, 8.05996917e-003, 1.20435711e-002,
          4.87782434e-003, 4.23387699e-002, 4.00644653e-002,
          -1.00037605e-002, -3.52683514e-002, -1.96007788e-002,
          -3.70105496e-003, -7.69800087e-003, -2.45486316e-003,
          -9.41286888e-003, 2.46709567e-002, 2.91293208e-002,
          -3.70258018e-002, -5.58964536e-002, -3.91026437e-002,
          -9.75900702e-003, -2.28336845e-002, -1.11892978e-002,
          4.68562730e-002, 3.52759846e-002, 6.43946156e-002,
          2.78437231e-002, -1.56952813e-002, 1.75037514e-002,
          4.80791405e-002, 3.71447392e-002, 4.81521450e-002,
          -5.06614754e-003, -1.85738131e-002, 1.87974907e-002,
          1.40416774e-003, -3.06412131e-002, -9.45557002e-003,
          4.20191046e-003, -7.08959671e-003, -2.28680321e-003,
          1.29184183e-002, 4.02803868e-002, 5.38022742e-002,
          -3.14808339e-002, -5.15918732e-002, -2.99120285e-002,
          -3.38982092e-003, -1.82379056e-002, 1.67048462e-002,
          -2.64726137e-003, 6.36560516e-003, 2.74962913e-002,
          -4.51512821e-002, -4.21678461e-002, -2.47311797e-002,
          -2.27629803e-002, -3.63173373e-002, -1.22478129e-002 ]
   decision_functions:
      -
         sv_count: 1
         rho: 9.4880521774291982e-001
         alpha: [ 1. ]
